encog,BasicNetwork,java,3.4.0,1,1507664912074
[BASIC]
[BASIC:PARAMS]
[BASIC:NETWORK]
beginTraining=0
connectionLimit=0
contextTargetOffset=0,0,0
contextTargetSize=0,0,0
endTraining=2
hasContext=f
inputCount=7
layerCounts=5,6,7
layerFeedCounts=5,5,7
layerContextCount=0,0,0
layerIndex=0,5,11
output=0,0,0,0,0,0,0,0,0,0,1,0,0,0,0,0,0,0
outputCount=5
weightIndex=0,30,65
weights=1.6358577686,-2.2650511795,-3.428265877,1.5064039003,1.6066439116,-2.3344846538,2.2303403639,-3.8006935605,0.5004297636,-0.6994524402,-3.2161462292,-0.0743292857,-3.1492662476,3.1083032384,-2.8993562271,0.7131491916,0.9096045472,-2.1370141087,-4.0695637737,-0.4703293911,2.4535751634,0.0682628259,-2.772807096,0.0121700808,1.6341881363,0.9008225356,0.0651750757,-5.0179060122,1.5703580528,-1.0530569678,-3.2389363131,0.0295826571,1.1324004746,1.3632238647,2.5504568147,0.5966080407,-4.3761616668,1.3239260712,1.2975915696,3.4910920823,-2.3498974819,-2.9760865629,-1.8858904389,1.8920572984,1.4352875113,-3.2492021613,-0.0260210193,-1.2293906767,-0.1006942694,2.8794739494,0.4784891819,1.2954027676,3.1745327194,-3.2523958933,1.4588262443,1.2553577288,-1.182448438,1.6059449719,-0.9797936874,3.302987292,2.593869459,1.8153582177,-1.4917252013,-1.7991733493,-0.9310614697
biasActivation=0,1,0
[BASIC:ACTIVATION]
"org.encog.engine.network.activation.ActivationSigmoid"
"org.encog.engine.network.activation.ActivationSigmoid"
"org.encog.engine.network.activation.ActivationLinear"
