encog,BasicNetwork,java,3.4.0,1,1507402306754
[BASIC]
[BASIC:PARAMS]
[BASIC:NETWORK]
beginTraining=0
connectionLimit=0
contextTargetOffset=0,0,0
contextTargetSize=0,0,0
endTraining=2
hasContext=f
inputCount=7
layerCounts=5,6,8
layerFeedCounts=5,5,7
layerContextCount=0,0,0
layerIndex=0,5,11
output=0,0,0,0,0,0,0,0,0,0,1,0,0,0,0,0,0,0,1
outputCount=5
weightIndex=0,30,70
weights=1.4245954858,-0.9442778447,-4.9678114188,8.4322114817,-29.5098624117,-0.8612547046,-0.9674695963,-0.9734166523,-37.5739202562,0.2809801683,12.5756479426,-0.5143256365,-0.0035333015,1.3392421555,4.5577896193,-13.6723735056,-148.5936521398,1.744730119,0.7490284018,-9.5125094902,0.3283872858,-10.9553249495,4.0235260836,-1.7636823202,-21.0197826752,1.4402212528,0.7583879197,-3.2286830606,9.0789814759,0.6716576197,3.0953900165,1.7656493099,-5.134251862,203.8879096805,-0.5107792855,3.9568052339,2.478322181,0.2046654687,-0.9994833664,2.8111278381,205.2143775917,0.8621674769,0.0843443016,-9.5456574327,-3.8872199674,0.3718505406,40.637273916,1.8861727653,0.8963812395,2.1623866006,-3.5137185914,-0.1349418626,25.3877188813,-0.4840945084,-14.4770371665,0.4818073722,-2.3480267857,205.1914467104,36.9255705527,-9.5716030559,0.0305657666,-0.1471538782,-5.0618582959,-112.5535086122,-2.3999419048,-2.3646152288,-0.2112428754,90.132645795,-9.849812834,0.6264562901
biasActivation=0,1,1
[BASIC:ACTIVATION]
"org.encog.engine.network.activation.ActivationSigmoid"
"org.encog.engine.network.activation.ActivationSigmoid"
"org.encog.engine.network.activation.ActivationLinear"
